// window.preloadBrain = '{"levels":[{"inputs":[0.5213428347464971,0.11555688386483198,0,0,0],"outputs":[0,0,1,0,0,0],"biases":[-0.06871090929617346,0.6500911571528641,-0.8118571566087516,0.6558934561503341,0.5688036821161181,0.6895038430696905],"weights":[[-0.3099627968572162,0.43033556084559144,-0.49804409971742497,-0.10129616204453246,-0.689380033241498,0.22965260435663837],[-0.2043933097079632,0.632116583597482,-0.6422947290687613,0.6481339975381559,-0.41609207083252253,0.7574394497373178],[0.7855448681065668,-0.41982220026218997,-0.08278431118278749,-0.12931897010478427,-0.6676399517619368,0.6730250065354141],[-0.2352756430721926,0.5282857128203382,0.6050997493383947,-0.29849293519564535,0.5265066140422573,0.7132944673936629],[-0.620504410476599,-0.4293950239621159,-0.5900832503118135,-0.38258261817227124,0.49045518861762855,0.8070080792885479]]},{"inputs":[0,0,1,0,0,0],"outputs":[1,0,0,0],"biases":[-0.4635086005612933,-0.15516021310994166,-0.08510132741511967,0.19227583029242123],"weights":[[-0.9663687556972944,0.12239529012255795,-0.1101382408986393,0.30752228131312426],[0.10549923967592506,0.2504912801488242,0.5711730459605822,0.22909085082282024],[0.5514100587072254,-0.27158118490584005,-0.6377651146004446,-0.538033842347729],[-0.38352474175694745,-0.2117902722394686,0.7848626123308012,-0.422939693634729],[0.3375429186452302,0.1584752018031761,0.7944946343865423,0.8520582481835467],[-0.2765911766548661,-0.6508237481237316,0.15191658358591037,0.5793800763881451]]}]}'
 