export const brain = {
  "id": 0,
  "levels": [
    {
      "weights": [
        [
          -0.6778594719524013,
          1.3579983114757777,
          1.728169084493723,
          7.688398933322383,
          -6.634707463280056,
          -1.9767061524502652,
          2.02852562558916,
          -6.325028577533402,
          -1.7915357762661808,
          4.015063492956202,
          -0.29621595260202355,
          0.5890754327995913
        ],
        [
          2.275962630694548,
          1.7156160989869165,
          -4.3421642165691,
          -0.8138772330111027,
          0.2999281328543765,
          -6.6832137625683545,
          -1.0314151287456756,
          -1.8316236683861713,
          1.0554232575456521,
          3.4154798815915424,
          1.8713538481227368,
          0.8796861720047924
        ],
        [
          3.741486460489618,
          -0.4544223136483271,
          -2.4348417908912725,
          0.7238912270845633,
          1.3022287690895453,
          -0.829416758895637,
          -0.31567441071951746,
          -0.20697574209480996,
          -0.6517092176957227,
          0.6182240658413013,
          -1.9781993294687876,
          3.8034731601721186
        ],
        [
          3.6121412909238213,
          -0.662287320131401,
          -4.737533084275972,
          -3.489944050572062,
          -4.036275623821088,
          -1.2132474873293957,
          0.5180299405007077,
          2.7905901266041075,
          -0.8252597726910287,
          -0.25951306317046174,
          -3.512364591675702,
          -3.5837111568742515
        ],
        [
          -1.1343682933441332,
          0.08463765079842916,
          -0.42951783454350656,
          -1.0030256379236435,
          -1.8583848227580253,
          1.0074007596704813,
          3.238731649198666,
          4.675655775108435,
          -2.643337098308467,
          -1.2604437928372216,
          1.0042252162672347,
          3.486053833950608
        ],
        [
          1.1045180810654063,
          -0.40163789257298266,
          -1.0785374895611302,
          -3.643872281813015,
          -2.2760404654903663,
          1.246352515000774,
          1.9166554462107137,
          -0.43138971683700267,
          3.0683580840272375,
          -1.7381991875438227,
          5.026834860180409,
          -0.46658307590851233
        ],
        [
          1.2891735714466575,
          -6.523955536395842,
          2.12770246381494,
          -2.598426333247307,
          2.8621594027254345,
          3.358639336856172,
          -5.115637891657198,
          -1.5229032282499206,
          4.67790561577547,
          5.875763012712929,
          -2.9292035942309447,
          -4.972267194443791
        ],
        [
          3.391364864807085,
          1.8106711133124318,
          -0.5969435083196006,
          2.323652175603337,
          -4.482096403043847,
          5.373091801518267,
          3.7502186387921794,
          4.847218703730578,
          -1.3572434927742378,
          -7.921583712475242,
          -2.494871440103292,
          -2.2295393483857784
        ],
        [
          2.301451279288362,
          -2.6473932781201532,
          1.1022130199500433,
          2.7160037300772886,
          -2.1756659738540263,
          2.363266052519329,
          0.10810893787851794,
          -3.7333774739251218,
          -1.8941359230169805,
          -1.0525866981783432,
          -5.832595859548478,
          0.6840014006050654
        ],
        [
          -3.2387824681756814,
          -1.4194456836196145,
          2.7188955270892112,
          0.5682100673574415,
          0.8347254135665,
          1.3428040996376271,
          -0.1083759034244891,
          -1.358694696498386,
          -0.6555712462389193,
          -1.7248604319190484,
          1.8405096467457105,
          2.517554527353757
        ]
      ],
      "inputs": [
        0.7368360785693442,
        0.5996033665667366,
        0,
        0,
        0.6023459961408462,
        0.7420386768047418,
        0.7902817326096843,
        0.23944645951731303,
        0.9966666666666667,
        -0.8400377575339049
      ],
      "outputs": [
        1,
        0,
        1,
        1,
        0,
        1,
        0,
        0,
        1,
        1,
        0,
        0
      ],
      "biases": [
        2.1325793940479274,
        1.2377171070043655,
        7.709346588430548,
        -2.404989476122479,
        -0.46024728237741874,
        -0.14823878834501103,
        -5.400770370797913,
        0.5549106791254318,
        3.3802835343197506,
        0.22748770843467178,
        0.4525712199515301,
        -2.82371974721722
      ]
    },
    {
      "weights": [
        [
          7.444523469421126,
          -2.013407191278623,
          3.575181663793377,
          -6.4845738481427855,
          -3.9534627125605324,
          -3.606936838463796,
          2.4219666189535936,
          -1.325244314765258,
          -0.42486357335849073,
          0.4506770840856976,
          0.6093376698868889,
          -0.8887359889505474
        ],
        [
          3.2832414085872994,
          0.846999072796451,
          -7.512474008892592,
          -1.8528298260951739,
          0.8490527420957178,
          -1.6334148023106358,
          1.0830815627568005,
          9.27942986159681,
          2.845959205123726,
          -1.7051059176893864,
          4.436561576188759,
          6.62006694254089
        ],
        [
          4.853367472516481,
          4.726180029374461,
          0.13058240671902716,
          -0.7099866947710486,
          0.9730546495959416,
          3.2267546688825814,
          -2.720307394645748,
          1.4500311989639443,
          1.3074879490343767,
          -2.4194539752946222,
          5.396027874795684,
          1.298697519690796
        ],
        [
          -5.530506371531159,
          4.409157086000423,
          -3.7022607543111534,
          -2.932644434261249,
          1.1113390706387556,
          0.00825544457732455,
          -2.7969958329436797,
          -4.072956421873362,
          4.7516765741926745,
          -0.9278342695399643,
          -1.3571065295555664,
          -2.1121808545327747
        ],
        [
          -0.528279120446621,
          -2.5408936563207027,
          1.2500969330972613,
          -1.5519734012937754,
          -3.6617293587891466,
          2.3508453867344277,
          1.239945880857678,
          -8.408024623219156,
          -1.8924669411223765,
          1.1675068010558272,
          -0.7106786003501536,
          2.1699680264060373
        ],
        [
          -5.7820020121521525,
          -3.006509064849781,
          -4.746760240258846,
          -3.1402544823662213,
          -4.0015128447774515,
          0.3852910015222826,
          4.365743287958774,
          -1.2762605547874286,
          0.20783726488343945,
          -5.0144260910180005,
          -1.7639364040481493,
          -0.8774560477877893
        ],
        [
          -2.0225480157290217,
          -3.333092250516017,
          1.265322880943378,
          -1.824118144134228,
          -1.6223807579291518,
          -4.509875413171086,
          -2.500537586268022,
          5.5368777464680115,
          -6.680514053084989,
          6.583057368510726,
          0.442017782012328,
          0.1264529803399021
        ],
        [
          -0.06952307212724629,
          0.7534311797797919,
          0.9906888730331737,
          -0.42087401064440505,
          -6.787228076377363,
          2.0971725195252287,
          0.9260136235337868,
          2.3245546592685877,
          2.2334651648918276,
          -0.4530742696382388,
          1.9165241118728116,
          4.718895046847773
        ],
        [
          -0.19531236153071083,
          -1.9605482891285058,
          -0.15700738967295413,
          -1.8311681533565367,
          -0.47212925159902225,
          1.355336380588649,
          2.4438749380446563,
          4.209847030732225,
          5.548634642738072,
          -0.6931480496142712,
          0.027154573693334034,
          2.4448136929089785
        ],
        [
          -0.8053072034422178,
          1.65591602676446,
          -4.918162775787636,
          1.5611459424211074,
          -3.877068806092406,
          -2.274792484787507,
          0.38762905842044926,
          -3.5763660800298647,
          4.89755731673625,
          0.79461846576968,
          -0.11601729428020469,
          -1.1114633903261915
        ],
        [
          0.8215059850686441,
          -1.1500797969513572,
          2.9387081110370237,
          -7.473285433251405,
          -0.19938960769045572,
          -3.020593296518501,
          0.2079771377940256,
          0.3992779239847101,
          2.2834283514624105,
          -3.94465682886013,
          3.7506817240108927,
          -1.5310777731190655
        ],
        [
          -4.403678319278354,
          2.680084711069652,
          1.771438298311606,
          -2.250908489941638,
          0.9378503519790096,
          -3.4479180755594916,
          -3.5808194451850777,
          -0.704701870367993,
          -3.060354555782982,
          1.213872420147836,
          1.5314022769542035,
          -1.057232851806285
        ]
      ],
      "inputs": [
        1,
        0,
        1,
        1,
        0,
        1,
        0,
        0,
        1,
        1,
        0,
        0
      ],
      "outputs": [
        1,
        1,
        0,
        0,
        0,
        1,
        1,
        0,
        1,
        0,
        1,
        1
      ],
      "biases": [
        6.167414558073357,
        -1.4073966282582782,
        4.369324711934315,
        2.8218994185631145,
        -2.6594228624974554,
        2.62503455475586,
        -0.08322474478927339,
        -2.754613528710108,
        0.1449831912623754,
        -2.3687012669398517,
        6.7057856961099045,
        3.51694535442103
      ]
    },
    {
      "weights": [
        [
          -0.6002631885419816,
          -0.9931825353900373,
          1.0913908457344574,
          -3.245723006135852
        ],
        [
          0.6231932992315066,
          -3.0385288287024688,
          0.1246716458486195,
          3.2394276755573217
        ],
        [
          1.4936523155524277,
          1.0164965782362287,
          -0.32822359731522877,
          1.652916388898129
        ],
        [
          0.12098063281304011,
          -2.306852561302794,
          -3.3253131734891714,
          -0.21717900491207753
        ],
        [
          -1.9965636762210943,
          5.474317970042325,
          -1.1429313952639413,
          -0.39309825266252574
        ],
        [
          -2.225083908120426,
          1.8241077512482513,
          -2.5246557225124096,
          2.969571181197797
        ],
        [
          2.474757354134166,
          1.4608036578088484,
          -2.875463202327397,
          -9.990411532548327
        ],
        [
          2.892366977441613,
          0.7353783030092698,
          -1.3730115413642685,
          -2.7343596870010267
        ],
        [
          4.892929469875387,
          -3.315533644179757,
          2.872131284966645,
          2.0282997130303215
        ],
        [
          -1.784560151774371,
          -1.9897450796856648,
          2.2495896127914037,
          -2.4016608764363543
        ],
        [
          -2.0172933832250752,
          -0.9601250305263076,
          -3.210501380205647,
          -5.854949169258754
        ],
        [
          1.1050408762812063,
          6.26765783366981,
          -1.1933043690364171,
          -1.036117925550493
        ]
      ],
      "inputs": [
        1,
        1,
        0,
        0,
        0,
        1,
        1,
        0,
        1,
        0,
        1,
        1
      ],
      "outputs": [
        1,
        0,
        0,
        0
      ],
      "biases": [
        4.282920171438649,
        -2.6613748369530117,
        5.4358807906982225,
        -3.1002114864175208
      ]
    }
  ]
}