export const brain = {
  "id": 0,
  "levels": [
    {
      "weights": [
        [
          3.189357084200367,
          -0.40970962660831045,
          2.238702254699486,
          7.651097704891128,
          -8.88742987726551,
          -6.0567824873364895,
          4.021060074784751,
          -6.277370264622846,
          2.915048759138596,
          3.453646671303388,
          3.627432435419591,
          -1.3701788499770349
        ],
        [
          5.8471426476210375,
          -0.6295225780948116,
          -6.117577289823283,
          -0.7102973481904444,
          -1.4958181594867197,
          -4.726862553107288,
          -3.5853097493737303,
          -3.174835580552032,
          2.483946248491727,
          2.196900283011857,
          1.8042553861894624,
          1.2862812484754174
        ],
        [
          5.551683039670543,
          -5.397486868548535,
          -1.4913907651313112,
          0.5587728139533016,
          4.903212341885283,
          -1.1268570285170116,
          -0.7850948727898422,
          0.9866587791275607,
          3.1254769462694565,
          3.037835423546409,
          -4.412111456328444,
          2.461146024165068
        ],
        [
          3.261327232053031,
          -2.7889113070714275,
          -4.254606286328708,
          -2.0783554248118636,
          -4.082181054893097,
          -1.19142918270463,
          -3.478333830499089,
          3.4803262162526623,
          2.514306334760895,
          1.6448679578569108,
          -0.26154842228092273,
          -8.360766618773905
        ],
        [
          -1.845510693232625,
          3.590442180172332,
          1.4608656944566087,
          -1.0706766366324105,
          1.7471653178051514,
          -0.8239628070458931,
          6.486991716197023,
          5.850162938148801,
          -2.4370509699423377,
          -3.8441314426195823,
          2.34696718911019,
          0.8780728474287068
        ],
        [
          -0.4047009384522038,
          -2.3868221895722987,
          -2.3102920592138276,
          -3.502060724223688,
          -3.246395077946255,
          0.7179898230082002,
          2.435564824966959,
          -3.9509102245001246,
          4.913525931331741,
          -1.775846082496661,
          5.630364463721146,
          2.4358196412574196
        ],
        [
          -1.8675119218826386,
          -7.25905133263093,
          2.6547029622655245,
          -4.356029768458732,
          3.195773493144553,
          4.2699928184205715,
          -6.191330658835918,
          -3.464881761328058,
          3.044427018091461,
          8.625461689572353,
          -2.1910522353028026,
          -4.621688906126916
        ],
        [
          0.5838303897454562,
          -0.5395725796608324,
          -1.0245789767200049,
          -1.191912681447337,
          -3.452151828191728,
          5.802551215506833,
          1.2093062713656129,
          3.757239266377537,
          -1.5308790674548165,
          -6.502260469882366,
          -1.6539270805747774,
          -3.195804503049958
        ],
        [
          2.297968865600724,
          -4.05538281229998,
          -3.969590941746854,
          2.4947423861731957,
          -1.5153103001433956,
          1.9243164386125498,
          -0.9021911183317969,
          -1.3973843414499827,
          -1.180196579681473,
          -0.788559444214033,
          -8.413053633865422,
          4.483316180117034
        ],
        [
          -2.7251298905730357,
          -2.286254344766602,
          0.2637257656731512,
          0.642951390379065,
          3.523748686827236,
          -0.5379486279956474,
          -0.7331677188520765,
          -4.855222039857454,
          3.981939481423383,
          3.293872215016982,
          1.2372871112884793,
          4.55185828358289
        ]
      ],
      "inputs": [
        0.7968599345318553,
        0.8015160323706529,
        0.7798697568212417,
        0.7134287134008483,
        0.4924201649380806,
        0,
        0.3207861801575279,
        0.6346530009993296,
        0.09499999999999997,
        -0.9050196889171389
      ],
      "outputs": [
        1,
        0,
        1,
        0,
        0,
        0,
        0,
        1,
        1,
        1,
        1,
        0
      ],
      "biases": [
        -2.502192218336823,
        3.1456805300720427,
        10.279839853554815,
        -2.303043024480662,
        -2.5086015111701845,
        4.717290376775501,
        -2.7141375392899887,
        0.7589986179861045,
        3.2948705694028364,
        1.5917357241721455,
        2.730292701016511,
        -1.1765555240373995
      ]
    },
    {
      "weights": [
        [
          7.105775593362719,
          0.6353904165141584,
          5.249329897487045,
          -9.81512119698033,
          -2.3959141661460874,
          -4.956079677782522,
          -2.5323387361033314,
          1.9296763979975968,
          6.5635261146904,
          -1.5705755964799366,
          -4.002193540573292,
          -1.2725057449263573
        ],
        [
          3.6288258005142193,
          0.11978567297123044,
          -3.0549002765209634,
          -4.99028095946377,
          -0.015084855368119085,
          -0.216359741916985,
          -0.314752882599422,
          9.725641614129962,
          6.077335635144528,
          -1.5617336578294345,
          4.08332252811089,
          5.788030695615589
        ],
        [
          6.589869901512621,
          4.639858932134221,
          0.5303357404499548,
          1.531041838297331,
          0.7600982884250294,
          2.104838549031823,
          -2.749027589504581,
          0.7103319084044311,
          -0.7894399182783526,
          -4.94274791812703,
          5.10676476718155,
          2.2389775503017306
        ],
        [
          -7.939455742274096,
          6.384704647582769,
          -3.009897492695159,
          -3.6991880255211655,
          1.209095666644321,
          -2.7166963236799946,
          -1.6342686205813037,
          -2.739499804677137,
          5.061910204951067,
          0.3572532650451772,
          -1.7797122276145318,
          -4.597066172052265
        ],
        [
          -2.7106418802411416,
          -4.359182948501152,
          -0.5958975268168376,
          0.13641982313059786,
          -1.0768090159053687,
          2.5323625694634626,
          -0.40311723060695603,
          -13.21027007955475,
          -1.166720430519492,
          0.9368794572591598,
          5.241230655407017,
          1.5711525359607332
        ],
        [
          -4.684273297835164,
          -3.250150529260012,
          -7.280343145504194,
          -1.8756923303826232,
          -1.9645587244098253,
          2.350304780488545,
          4.179035202997761,
          0.6975184441655321,
          0.7289037107985543,
          -5.798960315807105,
          0.9354292921352296,
          -7.662464694218702
        ],
        [
          -1.7775586228456959,
          -4.6819021528880285,
          4.484000463476091,
          1.9242721842730623,
          -1.401208404809773,
          -8.139028074106927,
          -5.589511683583672,
          5.428061408316129,
          -2.6181204789755226,
          7.184960563588481,
          1.9451223574370533,
          0.7081433688798214
        ],
        [
          -1.9899982802268985,
          1.345923231521779,
          0.27791675023239176,
          -0.6210842047660872,
          -5.820873801575315,
          2.3433849038071566,
          2.122623955861066,
          1.1333096288175366,
          -0.511486257755043,
          -0.5764623611626855,
          3.4548328477804544,
          1.178027053191445
        ],
        [
          -2.132653178785158,
          -4.691716170090621,
          2.4188748040887074,
          1.3906104324783786,
          -4.187630069574138,
          5.06617233967593,
          1.5195018310108583,
          3.0366291732699286,
          7.440523949539685,
          -0.07067962338293085,
          0.2736098993318759,
          1.256275081345134
        ],
        [
          -3.8183461013937583,
          0.6174574694272652,
          -7.276670496478408,
          -1.0625051824708074,
          -1.6425099913709456,
          -0.7072800452571887,
          -0.5715616905222634,
          -1.5745603632989384,
          4.984031263179113,
          1.5958589801210579,
          2.233665816806639,
          4.2198515256257805
        ],
        [
          2.7211593612745046,
          -1.617909142336255,
          5.495326642929967,
          -6.644235134260884,
          -0.867408611917543,
          -3.6081722481756104,
          5.445889584929829,
          0.8527088562207995,
          3.3578692126406615,
          -4.522688696517217,
          7.905768678505575,
          1.5730417321709278
        ],
        [
          -2.670029137765698,
          1.251275474644874,
          4.331907735623053,
          -4.087090999158449,
          4.010675889267301,
          -0.9363606511623881,
          -7.675271955303793,
          3.6039570861755768,
          0.25117760582553755,
          3.179746573307449,
          3.92643310381925,
          -2.957154025933599
        ]
      ],
      "inputs": [
        1,
        0,
        1,
        0,
        0,
        0,
        0,
        1,
        1,
        1,
        1,
        0
      ],
      "outputs": [
        1,
        0,
        1,
        0,
        0,
        1,
        1,
        1,
        1,
        0,
        1,
        1
      ],
      "biases": [
        6.783230132709563,
        -1.8102049045323665,
        6.898149025124014,
        3.521550015164397,
        -5.514506367194884,
        4.248098096049605,
        -0.0442851821888669,
        -6.014571114474951,
        1.0305016347450249,
        -3.9071084527677944,
        5.61915303136303,
        6.466731311271274
      ]
    },
    {
      "weights": [
        [
          0.8885076734623902,
          -2.0876166881075275,
          2.9543910316238478,
          -3.7478745004748806
        ],
        [
          1.0652460461222362,
          -5.274044979912968,
          -2.648638466774112,
          2.265783784004175
        ],
        [
          1.9116217777043645,
          0.535805981965504,
          -0.5233645140191744,
          1.5694901123251381
        ],
        [
          3.814952124125477,
          -3.5522220217112737,
          -2.8292120667645273,
          -0.2595945441942886
        ],
        [
          0.14203392024292244,
          5.68991578841951,
          2.0477115752719532,
          -2.184895790244046
        ],
        [
          -4.351248413880403,
          1.5978658633100282,
          -3.517458882808502,
          2.5381570149040646
        ],
        [
          -1.7281173720751297,
          1.7726927608865202,
          -3.270548140084686,
          -6.977304989111207
        ],
        [
          2.842098030564528,
          1.0552168896019158,
          -2.197197738386916,
          -0.7003264290477376
        ],
        [
          8.513331751260349,
          -0.6354163609265491,
          5.4855357285586726,
          1.9613362755924062
        ],
        [
          -1.0018216045501174,
          -1.0513945712220178,
          4.502292717917001,
          -0.5710534025482579
        ],
        [
          -3.734972824964266,
          -3.220115394167813,
          -2.1896275736764697,
          -7.5216301203452245
        ],
        [
          -0.5885171626839338,
          5.772236158576061,
          -1.7119555782813953,
          0.13211815417800807
        ]
      ],
      "inputs": [
        1,
        0,
        1,
        0,
        0,
        1,
        1,
        1,
        1,
        0,
        1,
        1
      ],
      "outputs": [
        1,
        1,
        1,
        0
      ],
      "biases": [
        3.74281666562218,
        -1.030295093304103,
        7.734225756521413,
        -4.504029463301667
      ]
    }
  ]
}